tree
version=v4
num_class=1
num_tree_per_iteration=1
label_index=0
max_feature_idx=71
objective=binary sigmoid:1
feature_names=0 1 2 3 4 5 6 7 8 9 10 11 12 13 14 15 16 17 18 19 20 21 22 23 24 25 26 27 28 29 30 31 32 33 34 35 36 37 38 39 40 41 42 43 44 45 46 47 48 49 50 51 52 53 54 55 56 57 58 59 60 61 62 63 64 65 66 67 68 69 70 71
feature_infos=-1:0:1 -1:0:1:2:3:4:5:6:7:8:9:10:11:12:13:14:15:16:17:18:19:20:21:22:23:24:25:26 -1:0:1:2 -1:0:1 -1:0:1 -1:0:1:2:3:4:5:6:7:8:9:10:11:12:13:14:15:16 -1:0:1:2:3:4:5:6:7:8:9:10:11:12:13:14:15:16:17 -1:0:1:2:3:4:5:6:7:8:9:10:11:12:13:14:15:16 -1:0:1:2:3:4:5:6:7:8:9:10:11:12:13:14:15:16 -1:0:1:2:3:4:5:6:7:8:9:10:11:12:13:14:15:16 -1:0:1:2:3:4:5:6:7:8:9:10:11:12:13:14:15:16 -1:0:1:2:3:4:5:6:7:8:9:10:11:12:13:14:15:16:17:18:19:20:21:22:23:24:25:26:27:28:29:30:31:32:33:34:35:36:37:38:39:40:41:42:43:44:45:46:47:48:49:50:51:52:53:54:55:56:57:58:59:60:61:62:63:64:65:66:67:68:69:70:71:72:73:74:75:76:77:78:79:80:81:82:83:84:85:86:87:88:89:90:91:92:93:94:95:96:97:98:99:100:101:102:103:104:105:106:107:108:109:110:111:112:113:114:115:116:117:118:119:120:121:122:123:124:125:126:127:128:129:130:131:132:133:134:135:136:137:138:139:140:141:142:143:144:145:146:147:148:149:150:151:152:153:154:155:156:157:158:159:160:161:162:163:164:165:166:167:168:169:170:171:172:173:174:175:176:177:178:179:180:181:182:183:184:185:186:187:188:189:190:191:192:193:194:195:196 -1:0:1:2:3:4:5:6:7:8:9:10:11:12:13:14:15:16:17:18:19:20:21:22:23:24:25:26:27:28:29:30:31:32:33:34:35:36:37:38:39:40:41:42:43:44:45:46:47:48:49:50:51:52:53:54:55:56:57:58:59:60:61:62:63:64:65:66:67:68:69:70:71:72:73:74:75:76:77:78:79:80:81:82:83:84:85:86:87:88:89:90:91:92:93:94:95:96:97:98:99:100:101:102:103:104:105:106:107:108:109:110:111:112:113:114:115:116:117:118:119:120:121:122:123:124:125:126:127:128:129:130:131:132:133:134:135:136:137:138:139:140:141:142:143:144:145:146:147:148:149:150:151:152:153:154:155:156:157:158:159:160:161:162:163:164:165:166:167:168:169:170:171:172:173:174:175:176:177:178:179:180:181:182:183:184:185:186:187:188:189:190:191:192:193:194:195:196:197:198:199:200:201:202:203:204:205 -1:0:1:2:3:4:5:6:7:8:9:10:11:12:13:14:15:16:17:18:19:20:21:22:23:24:25:26:27:28:29:30:31:32:33:34:35:36:37:38:39:40:41:42:43:44:45:46:47:48:49:50:51:52:53:54:55:56:57:58:59:60:61:62:63:64:65:66:67:68:69:70:71:72:73:74:75:76:77:78:79:80:81:82:83:84:85:86:87:88:89:90:91:92:93:94:95:96:97:98:99:100:101:102:103:104:105:106:107:108:109:110:111:112:113:114:115:116:117:118:119:120:121:122:123 -1:0:1:2:3:4:5:6:7:8:9:10:11:12:13:14:15:16:17:18:19:20:21:22:23:24:25:26:27:28:29:30:31:32:33:34:35:36:37:38:39:40:41:42:43:44:45:46:47:48:49:50:51:52:53:54:55:56:57:58:59:60:61:62:63:64:65:66:67:68:69:70:71:72:73:74:75:76:77:78:79:80:81:82:83:84:85:86:87:88:89:90:91:92:93:94:95:96:97:98:99:100:101:102:103:104:105:106:107:108:109:110:111:112:113:114:115:116:117:118:119:120:121:122:123:124:125 -1:0:1:2:3:4:5:6:7:8:9:10:11:12:13:14:15:16:17:18:19:20:21:22:23:24:25:26:27:28:29:30:31:32:33:34:35:36:37:38:39:40:41:42:43:44:45:46:47:48:49:50:51:52:53:54:55:56:57:58:59:60:61:62:63:64:65:66:67:68:69:70:71:72:73:74:75:76:77:78:79:80:81:82:83:84:85:86:87:88:89:90:91:92:93:94:95:96:97:98:99:100:101:102:103:104:105:106:107:108:109:110:111:112:113:114:115:116:117:118:119:120:121 -1:0:1:2:3:4:5:6:7:8:9:10:11:12:13:14:15:16:17:18:19:20:21:22:23:24:25:26:27:28:29:30:31:32:33:34:35:36:37:38:39:40:41:42:43:44:45:46:47:48:49:50:51:52:53:54:55:56:57:58:59:60:61:62:63:64:65:66:67:68:69:70:71:72:73:74:75:76:77:78:79:80:81:82:83:84:85:86:87:88:89:90:91:92:93:94:95:96:97:98:99:100:101:102:103:104:105:106:107:108:109:110:111:112:113:114:115:116:117:118:119:120 -1:0:1:2:3:4:5:6:7:8:9:10:11:12:13:14:15:16:17:18:19:20:21:22:23:24:25:26:27:28:29:30:31:32:33:34:35:36:37:38:39:40:41:42:43:44:45:46:47:48 -1:0:1:2:3:4:5:6:7:8:9:10:11:12:13:14:15:16:17:18:19:20:21:22:23:24:25:26:27:28:29:30:31:32:33:34:35:36:37:38:39:40:41:42:43:44:45:46:47:48:49:50 -1:0:1:2:3:4:5:6:7:8:9:10:11:12:13:14:15:16:17:18:19:20:21:22:23:24:25:26:27:28:29:30:31:32:33:34:35:36:37:38:39:40:41:42:43 -1:0:1:2:3:4:5:6:7:8:9:10:11:12:13:14:15:16:17:18:19:20:21:22:23:24:25:26:27:28:29:30:31:32:33:34:35:36:37:38:39:40:41:42 -1:0:1:2:3:4:5:6:7:8:9:10:11:12:13:14:15:16:17:18:19:20:21:22:23:24:25:26:27:28:29:30:31:32:33:34:35:36:37:38:39:40:41:42 -1:0:1:2:3:4:5:6:7:8:9:10:11:12:13:14:15:16:17:18:19:20:21:22:23:24:25:26:27:28:29:30:31:32:33:34:35:36:37:38:39:40:41:42 -1:0:1:2:3:4:5:6:7:8:9:10:11 -1:0:1:2:3:4:5:6:7:8:9:10:11:12:13:14:15:16:17:18:19:20:21:22:23:24:25:26:27:28:29:30:31:32:33:34:35:36:37:38:39:40:41:42:43:44:45:46:47:48:49:50 [17:88] [0:336] [0:327] [0:286] [0:333] [0:333] [0.0016892654821276665:119.65105438232422] [0.0045141242444515228:83.307991027832031] [0.0035960453096777201:119.24842834472656] [0.00098022597376257181:74.203941345214844] [0.002254237188026309:69.631500244140625] [0.3333333432674408:3844] [0.3333333432674408:2511.666748046875] [0.3333333432674408:3839.666748046875] [0.3333333432674408:3049.5] [0.3333333432674408:2360] [0.0016779660945758224:0.33728814125061035] [0.00084745761705562472:0.33728814125061035] [0.00038983050035312772:0.1955864429473877] [0.0016779660945758224:0.25254237651824951] [0.0012627118267118931:0.32033899426460266] [0.00084745761705562472:0.29661017656326294] [36:1371879] [1:80] [1:60] [1:69] [1:43] [1:64] [0:46] [0:35] [0:48] [0:32] [0:36] [0:1] [0:1] [0:1] [0:1] [0:1] [0:1] [0.00084745761705562472:2.6156439781188965] [0.00038983050035312772:1.9266440868377686] [0.0016779660945758224:1.4954407215118408] [0.0025254236534237862:1.5846948623657227] [0.00084745761705562472:1.400915265083313] [0.0016779660945758224:17.417575836181641] [1:605] [1:391]
tree_sizes=1590 1801 1904 1886 1783 1809

Tree=0
num_leaves=14
num_cat=3
split_feature=69 40 38 28 12 69 12 69 69 42 17 36 42
split_gain=255.473 67.0603 42.1529 38.8291 30.9064 29.8562 28.6303 21.1108 20.7242 12.7864 8.19177 8.1238 7.06536
threshold=0.49866101145744329 165.72222137451175 27.516666412353519 14.055555343627931 0 0.92190676927566539 1 1.3605169653892519 0.11519491299986841 0.028242937289178375 2 97.372550964355483 0.028798728249967102
decision_type=10 8 10 8 9 10 9 10 8 8 9 10 10
left_child=3 5 4 10 -3 -2 11 -4 -8 -7 -1 -5 -12
right_child=1 2 7 6 -6 9 8 -9 -10 -11 12 -13 -14
leaf_value=1.5060107696275706 1.49332900241489 1.5093640764389276 1.4920924304899079 1.4908755099777995 1.4963954627008957 1.456287702065945 1.5143213557892254 1.475482613547979 1.508751269219238 1.4764856312516277 1.4869140210869864 1.5033680195736563 1.5009826020070267
leaf_weight=22.317087650299072 17.109767198562622 56.982963800430298 56.536622047424316 22.763429403305054 206.65623164176941 15.919522523880003 288.03921127319336 31.690264463424683 459.88078618049622 17.556108951568604 28.268311023712158 35.112217903137207 14.282936096191404
leaf_count=150 115 383 380 153 1389 107 1936 213 3091 118 190 236 96
internal_value=1.50386 1.49334 1.49586 1.50903 1.49912 1.47582 1.51 1.48612 1.5108 1.46687 1.49691 1.49925 1.49396
internal_weight=0 402.451 351.866 870.664 263.639 50.5854 805.796 88.2269 747.92 33.4756 64.8683 57.8756 42.5512
internal_count=8557 2705 2365 5852 1772 340 5416 593 5027 225 436 389 286
cat_boundaries=0 2 6 7
cat_threshold=3398172716 67142308 4194304 385894634 4718849 1 410
is_linear=0
shrinkage=1


Tree=1
num_leaves=15
num_cat=4
split_feature=69 24 44 38 46 24 11 69 67 12 68 42 41 69
split_gain=240.609 49.6206 48.6496 44.707 33.3913 31.8524 30.6113 27.4167 22.5183 17.8348 13.9433 12.6631 7.48679 5.01903
threshold=0.89300850033760082 0 0.039290959015488632 363.99073791503912 0.012188135646283628 1 2 2.4121440649032597 0.037262711673974998 3 0.17616101354360583 0.025619703345000747 0.027622337453067306 0.37438134849071508
decision_type=10 9 8 8 10 9 9 10 10 9 8 10 10 10
left_child=1 8 4 12 11 10 -5 -7 9 -1 -4 -2 -3 -10
right_child=2 3 5 6 -6 7 -8 -9 13 -11 -12 -13 -14 -15
leaf_value=-0.0016626063796204762 -0.0093743781554679675 -0.019425367244137657 -0.015241891208187633 -0.0029767641532486657 -0.042710343234863862 -0.013796059091918144 0.0050482587520704223 -0.038220177628666245 0.0021258089333941904 0.0091357286654911753 0.0030567572405750137 -0.028833315311752091 -0.007599150951466886 -0.0088467874099793422
leaf_weight=48.3079654276371 20.512888729572296 28.540150314569473 13.861823216080664 210.89508412778378 23.618514388799667 75.285359680652618 287.66889761388302 14.549066990613936 20.182247817516327 441.65634429454803 54.073172181844711 15.671769604086874 28.384498700499535 24.328580752015114
leaf_count=325 136 191 92 1421 156 503 1939 97 136 2975 362 104 190 163
internal_value=0 0.0036068 -0.0151425 0.00013146 -0.0276474 -0.0104009 0.00169471 -0.015976 0.00708334 0.00822311 -0.000587105 -0.0178088 -0.0135326 -0.00386623
internal_weight=0 1089.96 217.573 555.489 59.8032 157.769 498.564 89.8344 534.475 489.964 67.935 36.1847 56.9246 44.5108
internal_count=8790 7340 1450 3741 396 1054 3360 600 3599 3300 454 240 381 299
cat_boundaries=0 2 4 7 9
cat_threshold=319110537 373629 160109096 349745 281827171 5052634 2 140591104 1736866
is_linear=0
shrinkage=0.0162784


Tree=2
num_leaves=16
num_cat=5
split_feature=69 55 24 69 70 24 11 39 67 65 24 71 58 11 67
split_gain=247.138 60.2228 57.4814 41.4287 39.3912 37.8125 24.613 24.4021 22.6406 20.4647 20.1945 16.8586 15.453 14.447 6.62511
threshold=0.59439831972122203 1.0000000180025095e-35 0 0.2779067754745484 56.500000000000007 1 2 121.72222137451173 0.062228811904788024 0.4930254220962525 3 4.5000000000000009 0.43050193786621099 4 0.17111016809940341
decision_type=10 2 9 8 10 9 9 8 10 8 9 10 8 9 8
left_child=2 5 3 13 8 14 10 -7 -3 -6 -4 -8 -5 -1 -2
right_child=1 4 6 12 9 7 11 -9 -10 -11 -12 -13 -14 -15 -16
leaf_value=0.0076371424967394746 -0.0071781212330828239 -0.01109066004575208 0.008309679968487093 -0.020748325898536299 -0.049546320081754608 -0.033451214336124406 0.012217782523398108 -0.010530026911561671 -0.034050666674169845 -0.024492073656492218 -0.0056477816170445883 0.0060794490595545798 -0.0064013543695894213 -0.00063463759494057691 0.0049004425766406429
leaf_weight=75.47749787569046 14.996384397149084 58.626777470111847 32.561935350298882 26.027536600828171 16.821368530392647 13.403425961732863 192.10231530666351 152.23217095434666 14.143548756837843 17.879132315516472 67.951926037669182 310.43391060829163 84.820960462093353 163.99272133409977 60.69076980650425
leaf_count=510 100 387 220 175 109 89 1303 1015 93 116 459 2096 571 1107 406
internal_value=0 -0.0122306 0.00378332 -0.00150105 -0.0223676 -0.00771518 0.00676616 -0.0116811 -0.0155565 -0.0366444 -0.00078127 0.00826199 -0.00977223 0.00226393 0.00221185
internal_weight=0 348.794 953.369 350.319 107.471 241.323 603.05 165.636 72.7703 34.7005 100.514 502.536 110.848 239.47 75.6872
internal_count=8756 2315 6441 2363 705 1610 4078 1104 480 225 679 3399 746 1617 506
cat_boundaries=0 2 4 7 9 11
cat_threshold=2759245940 168 285933577 411172 1191712256 841619587 1 318834690 117780 1918936276 16432
is_linear=0
shrinkage=0.0162784


Tree=3
num_leaves=16
num_cat=5
split_feature=69 34 24 11 33 24 69 41 35 69 11 34 65 32 4
split_gain=200.29 60.5065 59.3162 44.8251 37.1933 33.49 27.7627 21.4487 18.8374 16.6354 12.7998 12.6409 11.7392 11.1256 10.0729
threshold=0.55477967858314525 0.40434746444225317 0 1 0.38905508816242224 2 0.16327966004610064 0.037805546075105674 1.7635223269462588 0.27188982069492346 3 0.92214405536651622 0.1897372901439667 7.2743389606475839 4
decision_type=10 10 9 9 10 9 10 10 10 8 9 10 8 8 1
left_child=2 5 9 6 13 12 -4 -7 -6 11 -11 -1 -2 -3 -5
right_child=1 4 3 14 8 7 -8 -9 -10 10 -12 -13 -14 -15 -16
leaf_value=0.01199430699661419 -0.0097166929585679289 -0.024979642674240642 0.00061613138234978086 0.0070484757163364374 -0.024113801123495759 -0.0078501894710913001 -0.011499422506095843 -0.022785199806403589 -0.047319176235534617 -0.0023842420621525001 0.0072490575854359121 -0.002212416369162834 0.0039991651533314507 -0.0092205549467307257 0.00082906134064495839
leaf_weight=259.85974170267582 20.263345003128052 15.542998507618902 94.784049034118652 166.45451252162457 24.638626590371132 115.73776170611382 106.27149444818497 32.713325262069702 14.936111807823179 50.869357660412788 110.39573481678963 17.698820114135742 89.766526505351067 50.692209035158157 118.02829192578793
leaf_count=1769 134 102 642 1126 159 765 714 216 95 344 748 120 597 335 798
internal_value=0 -0.0100184 0.00423318 0.000217297 -0.0203884 -0.00577252 -0.00551241 -0.0104397 -0.032878 0.00847788 0.00451053 0.0110875 0.00134849 -0.0129223 0.0043172
internal_weight=0 364.291 924.362 485.538 105.81 258.481 201.056 148.451 39.5747 438.824 161.265 277.559 110.03 66.2352 284.483
internal_count=8664 2403 6261 3280 691 1712 1356 981 254 2981 1092 1889 731 437 1924
cat_boundaries=0 2 5 7 8 9
cat_threshold=1535384715 255319 374082855 1359823303 10 1393115665 380527 35749092 1
is_linear=0
shrinkage=0.0162784


Tree=4
num_leaves=15
num_cat=6
split_feature=70 70 24 38 45 46 24 11 70 70 24 11 26 6
split_gain=203.08 59.6265 51.2585 31.8869 30.9615 29.6728 26.5957 26.3018 28.3638 25.4282 23.3438 15.26 8.74734 6.92013
threshold=20.500000000000004 63.500000000000007 0 267.14999389648443 0.017962288111448291 0.016933615319430832 1 2 4.5000000000000009 10.500000000000002 3 4 10.011111259460451 5
decision_type=10 10 9 8 10 10 9 9 10 10 9 9 8 9
left_child=2 4 7 -3 6 -6 -2 13 -9 11 -11 -4 -5 -1
right_child=1 3 9 12 5 -7 -8 8 -10 10 -12 -13 -14 -15
leaf_value=0.0079702483421751503 0.0023892898840815408 -0.040203676005339237 0.00076627336185579884 -0.0099731809737998705 -0.011129737038877685 -0.038241069477122323 -0.0087433891857384583 0.0017224098412050785 -0.010347592314601009 -0.0053079015216337348 0.0060568631096047706 0.010368918653970939 -0.025978654044823583 -0.00093315475075052127
leaf_weight=69.720378547906876 90.286551207304001 22.848497316241264 63.613211184740067 24.340910062193871 41.207248508930206 14.469638884067534 139.70056599378586 96.086982250213623 111.33502551913261 67.642299652099609 118.71791641414165 359.566525131464 14.477016538381575 37.112611874938011
leaf_count=472 600 143 433 158 269 92 924 651 746 455 802 2458 94 251
internal_value=0 -0.0104213 0.00417954 -0.0249395 -0.00728647 -0.01818 -0.00464826 -0.00121782 -0.00453639 0.00686987 0.00197076 0.00918912 -0.0159486 0.00506013
internal_weight=0 347.33 923.795 61.6664 285.664 55.6769 229.987 314.255 207.422 609.54 186.36 423.18 38.8179 106.833
internal_count=8548 2280 6268 395 1885 361 1524 2120 1397 4148 1257 2891 252 723
cat_boundaries=0 2 4 6 8 11 12
cat_threshold=1693474932 168 1091389001 196695 3727917270 8397072 34373896 43841 371740672 1092620690 531 371
is_linear=0
shrinkage=0.0162784


Tree=5
num_leaves=15
num_cat=5
split_feature=71 24 32 38 12 68 12 24 26 50 71 36 24 64
split_gain=250.941 72.8104 57.4766 37.9826 35.4993 33.6275 26.3397 21.2872 21.8251 19.5114 16.9473 11.1671 9.24174 7.13545
threshold=27.500000000000004 0 10.238845825195314 42.083333969116218 1 0.076194915920496001 2 3 20.045454978942875 3.5000000000000004 5.5000000000000009 46.211111068725593 4 0.086381357163190856
decision_type=10 9 8 10 9 10 9 9 10 2 8 8 9 8
left_child=1 6 11 7 -4 9 12 13 -9 -5 -8 -3 -1 -2
right_child=3 2 4 5 -6 -7 10 8 -10 -11 -12 -13 -14 -15
leaf_value=-0.0072088268876700067 -0.008233587649881564 -0.0032609494287951569 0.0064417843585226411 -0.030945383081729359 -0.0025728238446518343 -0.046464659644355977 0.013163125118591815 -0.012398621438230726 -0.031816298028081301 -0.011062734035338122 0.0066558060393598698 -0.019827172368926317 0.0030671824681033116 0.0064478710908184491
leaf_weight=33.405339598655701 13.81906872987747 14.033730804920195 172.15351687371731 23.199335783720016 308.50556381046772 16.287878960371017 162.9998930990696 90.254248261451721 18.50783072412014 30.105230927467346 304.37138712406158 47.063822120428085 42.589724987745285 24.000691995024681
leaf_count=226 91 94 1164 147 2083 100 1124 590 121 190 2058 314 289 158
internal_value=0 0.00312832 -0.00113313 -0.016078 0.00073586 -0.0259835 0.00726474 -0.0113735 -0.0143827 -0.0197206 0.00873883 -0.0160259 -0.00176012 0.000851839
internal_weight=0 1085.12 541.757 216.174 480.659 69.5924 543.366 146.582 108.762 53.3046 467.371 61.0976 75.9951 37.8198
internal_count=8749 7352 3655 1397 3247 437 3697 960 711 337 3182 408 515 249
cat_boundaries=0 2 5 8 10 12
cat_threshold=453320619 475739 2335177996 138948940 176 3024134144 610962474 526352 1225719808 409664 302258442 147464
is_linear=0
shrinkage=0.0162784


end of trees

feature_importances:
24=13
69=12
11=7
12=5
70=5
38=4
42=3
67=3
71=3
26=2
32=2
34=2
36=2
41=2
46=2
65=2
68=2
4=1
6=1
17=1
28=1
33=1
35=1
39=1
40=1
44=1
45=1
50=1
55=1
58=1
64=1

parameters:
[boosting: gbdt]
[objective: binary]
[metric: auc]
[tree_learner: serial]
[device_type: cpu]
[data_sample_strategy: bagging]
[data: ]
[valid: ]
[num_iterations: 2000]
[learning_rate: 0.0162784]
[num_leaves: 16]
[num_threads: 0]
[seed: 0]
[deterministic: 0]
[force_col_wise: 0]
[force_row_wise: 0]
[histogram_pool_size: -1]
[max_depth: 4]
[min_data_in_leaf: 89]
[min_sum_hessian_in_leaf: 0.001]
[bagging_fraction: 0.432696]
[pos_bagging_fraction: 1]
[neg_bagging_fraction: 1]
[bagging_freq: 1]
[bagging_seed: 3]
[feature_fraction: 0.691318]
[feature_fraction_bynode: 1]
[feature_fraction_seed: 2]
[extra_trees: 0]
[extra_seed: 6]
[early_stopping_round: 0]
[first_metric_only: 0]
[max_delta_step: 0]
[lambda_l1: 0.0146028]
[lambda_l2: 0.000161691]
[linear_lambda: 0]
[min_gain_to_split: 0]
[drop_rate: 0.1]
[max_drop: 50]
[skip_drop: 0.5]
[xgboost_dart_mode: 0]
[uniform_drop: 0]
[drop_seed: 4]
[top_rate: 0.2]
[other_rate: 0.1]
[min_data_per_group: 100]
[max_cat_threshold: 32]
[cat_l2: 10]
[cat_smooth: 10]
[max_cat_to_onehot: 4]
[top_k: 20]
[monotone_constraints: ]
[monotone_constraints_method: basic]
[monotone_penalty: 0]
[feature_contri: ]
[forcedsplits_filename: ]
[refit_decay_rate: 0.9]
[cegb_tradeoff: 1]
[cegb_penalty_split: 0]
[cegb_penalty_feature_lazy: ]
[cegb_penalty_feature_coupled: ]
[path_smooth: 0]
[interaction_constraints: ]
[verbosity: -1]
[saved_feature_importance_type: 0]
[use_quantized_grad: 0]
[num_grad_quant_bins: 4]
[quant_train_renew_leaf: 0]
[stochastic_rounding: 1]
[linear_tree: 0]
[max_bin: 255]
[max_bin_by_feature: ]
[min_data_in_bin: 3]
[bin_construct_sample_cnt: 200000]
[data_random_seed: 1]
[is_enable_sparse: 1]
[enable_bundle: 1]
[use_missing: 1]
[zero_as_missing: 0]
[feature_pre_filter: 1]
[pre_partition: 0]
[two_round: 0]
[header: 0]
[label_column: ]
[weight_column: ]
[group_column: ]
[ignore_column: ]
[categorical_feature: 0,1,2,3,4,5,6,7,8,9,10,11,12,13,14,15,16,17,18,19,20,21,22,23,24]
[forcedbins_filename: ]
[precise_float_parser: 0]
[parser_config_file: ]
[objective_seed: 5]
[num_class: 1]
[is_unbalance: 0]
[scale_pos_weight: 1]
[sigmoid: 1]
[boost_from_average: 1]
[reg_sqrt: 0]
[alpha: 0.9]
[fair_c: 1]
[poisson_max_delta_step: 0.7]
[tweedie_variance_power: 1.5]
[lambdarank_truncation_level: 30]
[lambdarank_norm: 1]
[label_gain: ]
[lambdarank_position_bias_regularization: 0]
[eval_at: ]
[multi_error_top_k: 1]
[auc_mu_weights: ]
[num_machines: 1]
[local_listen_port: 12400]
[time_out: 120]
[machine_list_filename: ]
[machines: ]
[gpu_platform_id: -1]
[gpu_device_id: -1]
[gpu_use_dp: 0]
[num_gpu: 1]

end of parameters

pandas_categorical:[]
